Language model created by QuickLM on Mon Jun 19 15:25:30 EDT 2017
Copyright (c) 1996-2010 Carnegie Mellon University and Alexander I. Rudnicky

The model is in standard ARPA format, designed by Doug Paul while he was at MITRE.

The code that was used to produce this language model is available in Open Source.
Please visit http://www.speech.cs.cmu.edu/tools/ for more information

The (fixed) discount mass is 0.5. The backoffs are computed using the ratio method.
This model based on a corpus of 15 sentences and 28 words

\data\
ngram 1=28
ngram 2=45
ngram 3=51

\1-grams:
-2.2788 5 -0.2987
-1.1027 </s> -0.3010
-1.1027 <s> -0.2653
-2.2788 A -0.2987
-1.9777 AT -0.2847
-1.9777 BREAKFAST -0.2653
-1.8016 CALL -0.2800
-2.2788 CHECKOUT -0.2653
-2.2788 CONCIERGE -0.2653
-1.9777 CONTINENTAL -0.2964
-1.9777 DESK -0.2653
-1.9777 DIM -0.2727
-1.9777 FRONT -0.2964
-1.5006 LIGHTS -0.2653
-1.1027 MARRIOTT -0.2653
-1.9777 OFF -0.2727
-1.9777 ON -0.2727
-1.8016 ORDER -0.2800
-2.2788 PM -0.2964
-2.2788 REQUEST -0.2987
-2.2788 RESERVE -0.2987
-2.2788 RESTAURANT -0.2653
-2.2788 ROOM -0.2987
-2.2788 SERVICE -0.2653
-2.2788 TABLE -0.2964
-1.5006 THE -0.2751
-2.2788 TOWELS -0.2653
-1.6767 TURN -0.2918

\2-grams:
-0.3010 5 PM 0.0000
-0.3010 <s> MARRIOTT 0.0000
-0.3010 A TABLE 0.0000
-0.6021 AT 5 0.0000
-0.6021 AT THE -0.2632
-0.3010 BREAKFAST </s> -0.3010
-0.7782 CALL CONCIERGE 0.0000
-0.7782 CALL FRONT 0.0000
-0.7782 CALL THE -0.2632
-0.3010 CHECKOUT </s> -0.3010
-0.3010 CONCIERGE </s> -0.3010
-0.3010 CONTINENTAL BREAKFAST 0.0000
-0.3010 DESK </s> -0.3010
-0.6021 DIM LIGHTS 0.0000
-0.6021 DIM THE -0.1761
-0.3010 FRONT DESK 0.0000
-0.3010 LIGHTS </s> -0.3010
-1.0000 MARRIOTT CALL 0.0000
-1.4771 MARRIOTT CHECKOUT 0.0000
-1.1761 MARRIOTT DIM 0.0000
-1.0000 MARRIOTT ORDER 0.0000
-1.4771 MARRIOTT REQUEST 0.0000
-1.4771 MARRIOTT RESERVE 0.0000
-0.8751 MARRIOTT TURN 0.0000
-0.6021 OFF LIGHTS 0.0000
-0.6021 OFF THE -0.1761
-0.6021 ON LIGHTS 0.0000
-0.6021 ON THE -0.1761
-0.7782 ORDER CONTINENTAL 0.0000
-0.7782 ORDER ROOM 0.0000
-0.7782 ORDER THE -0.2632
-0.3010 PM AT -0.1761
-0.3010 REQUEST TOWELS 0.0000
-0.3010 RESERVE A 0.0000
-0.3010 RESTAURANT </s> -0.3010
-0.3010 ROOM SERVICE 0.0000
-0.3010 SERVICE </s> -0.3010
-0.3010 TABLE AT -0.1761
-1.0792 THE CONTINENTAL 0.0000
-1.0792 THE FRONT 0.0000
-0.6021 THE LIGHTS 0.0000
-1.0792 THE RESTAURANT 0.0000
-0.3010 TOWELS </s> -0.3010
-0.6021 TURN OFF 0.0000
-0.6021 TURN ON 0.0000

\3-grams:
-0.3010 5 PM AT
-1.0000 <s> MARRIOTT CALL
-1.4771 <s> MARRIOTT CHECKOUT
-1.1761 <s> MARRIOTT DIM
-1.0000 <s> MARRIOTT ORDER
-1.4771 <s> MARRIOTT REQUEST
-1.4771 <s> MARRIOTT RESERVE
-0.8751 <s> MARRIOTT TURN
-0.3010 A TABLE AT
-0.3010 AT 5 PM
-0.3010 AT THE RESTAURANT
-0.3010 CALL CONCIERGE </s>
-0.3010 CALL FRONT DESK
-0.3010 CALL THE FRONT
-0.3010 CONTINENTAL BREAKFAST </s>
-0.3010 DIM LIGHTS </s>
-0.3010 DIM THE LIGHTS
-0.3010 FRONT DESK </s>
-0.7782 MARRIOTT CALL CONCIERGE
-0.7782 MARRIOTT CALL FRONT
-0.7782 MARRIOTT CALL THE
-0.3010 MARRIOTT CHECKOUT </s>
-0.6021 MARRIOTT DIM LIGHTS
-0.6021 MARRIOTT DIM THE
-0.7782 MARRIOTT ORDER CONTINENTAL
-0.7782 MARRIOTT ORDER ROOM
-0.7782 MARRIOTT ORDER THE
-0.3010 MARRIOTT REQUEST TOWELS
-0.3010 MARRIOTT RESERVE A
-0.6021 MARRIOTT TURN OFF
-0.6021 MARRIOTT TURN ON
-0.3010 OFF LIGHTS </s>
-0.3010 OFF THE LIGHTS
-0.3010 ON LIGHTS </s>
-0.3010 ON THE LIGHTS
-0.3010 ORDER CONTINENTAL BREAKFAST
-0.3010 ORDER ROOM SERVICE
-0.3010 ORDER THE CONTINENTAL
-0.3010 PM AT THE
-0.3010 REQUEST TOWELS </s>
-0.3010 RESERVE A TABLE
-0.3010 ROOM SERVICE </s>
-0.3010 TABLE AT 5
-0.3010 THE CONTINENTAL BREAKFAST
-0.3010 THE FRONT DESK
-0.3010 THE LIGHTS </s>
-0.3010 THE RESTAURANT </s>
-0.6021 TURN OFF LIGHTS
-0.6021 TURN OFF THE
-0.6021 TURN ON LIGHTS
-0.6021 TURN ON THE

\end\
