Language model created by QuickLM on Sat Jun 17 18:07:40 EDT 2017
Copyright (c) 1996-2010 Carnegie Mellon University and Alexander I. Rudnicky

The model is in standard ARPA format, designed by Doug Paul while he was at MITRE.

The code that was used to produce this language model is available in Open Source.
Please visit http://www.speech.cs.cmu.edu/tools/ for more information

The (fixed) discount mass is 0.5. The backoffs are computed using the ratio method.
This model based on a corpus of 3 sentences and 7 words

\data\
ngram 1=7
ngram 2=8
ngram 3=7

\1-grams:
-0.9700 </s> -0.3010
-0.9700 <s> -0.2518
-1.4472 BLUE -0.2518
-1.4472 CLEAR -0.2518
-0.9700 MARRIOTT -0.2518
-1.4472 RED -0.2518
-1.1461 RING -0.2688

\2-grams:
-0.3010 <s> MARRIOTT 0.0000
-0.3010 BLUE </s> -0.3010
-0.3010 CLEAR </s> -0.3010
-0.7782 MARRIOTT CLEAR 0.0000
-0.4771 MARRIOTT RING 0.0000
-0.3010 RED </s> -0.3010
-0.6021 RING BLUE 0.0000
-0.6021 RING RED 0.0000

\3-grams:
-0.7782 <s> MARRIOTT CLEAR
-0.4771 <s> MARRIOTT RING
-0.3010 MARRIOTT CLEAR </s>
-0.6021 MARRIOTT RING BLUE
-0.6021 MARRIOTT RING RED
-0.3010 RING BLUE </s>
-0.3010 RING RED </s>

\end\
