Language model created by QuickLM on Mon Jun 19 15:45:50 EDT 2017
Copyright (c) 1996-2010 Carnegie Mellon University and Alexander I. Rudnicky

The model is in standard ARPA format, designed by Doug Paul while he was at MITRE.

The code that was used to produce this language model is available in Open Source.
Please visit http://www.speech.cs.cmu.edu/tools/ for more information

The (fixed) discount mass is 0.5. The backoffs are computed using the ratio method.
This model based on a corpus of 32 sentences and 37 words

\data\
ngram 1=37
ngram 2=67
ngram 3=35

\1-grams:
-2.2967 1 -0.2245
-2.2967 2 -0.2245
-2.2967 3 -0.2245
-2.2967 4 -0.2245
-2.2967 5 -0.2245
-2.2967 6 -0.2245
-2.2967 7 -0.2245
-2.2967 8 -0.2245
-2.2967 9 -0.2245
-0.7915 </s> -0.3010
-0.7915 <s> -0.2245
-2.2967 A -0.2245
-2.2967 AM -0.2245
-2.2967 AT -0.2245
-2.2967 BREAKFAST -0.2245
-2.2967 CALL -0.2245
-2.2967 CHECKOUT -0.2245
-2.2967 CONCIERGE -0.2245
-2.2967 CONTINENTAL -0.2988
-2.2967 DESK -0.2245
-2.2967 DIM -0.2245
-2.2967 FRONT -0.2988
-2.2967 LIGHTS -0.2245
-2.2967 MARRIOTT -0.2245
-2.2967 OFF -0.2245
-2.2967 ON -0.2245
-2.2967 ORDER -0.2245
-2.2967 PM -0.2245
-2.2967 REQUEST -0.2245
-2.2967 RESERVE -0.2245
-2.2967 RESTAURANT -0.2245
-2.2967 ROOM -0.2988
-2.2967 SERVICE -0.2245
-2.2967 TABLE -0.2245
-2.2967 THE -0.2245
-2.2967 TOWELS -0.2245
-2.2967 TURN -0.2245

\2-grams:
-0.3010 1 </s> -0.3010
-0.3010 2 </s> -0.3010
-0.3010 3 </s> -0.3010
-0.3010 4 </s> -0.3010
-0.3010 5 </s> -0.3010
-0.3010 6 </s> -0.3010
-0.3010 7 </s> -0.3010
-0.3010 8 </s> -0.3010
-0.3010 9 </s> -0.3010
-1.8062 <s> 1 0.0000
-1.8062 <s> 2 0.0000
-1.8062 <s> 3 0.0000
-1.8062 <s> 4 0.0000
-1.8062 <s> 5 0.0000
-1.8062 <s> 6 0.0000
-1.8062 <s> 7 0.0000
-1.8062 <s> 8 0.0000
-1.8062 <s> 9 0.0000
-1.8062 <s> A 0.0000
-1.8062 <s> AM 0.0000
-1.8062 <s> AT 0.0000
-1.8062 <s> CALL 0.0000
-1.8062 <s> CHECKOUT 0.0000
-1.8062 <s> CONCIERGE 0.0000
-1.8062 <s> CONTINENTAL 0.0000
-1.8062 <s> DIM 0.0000
-1.8062 <s> FRONT 0.0000
-1.8062 <s> LIGHTS 0.0000
-1.8062 <s> MARRIOTT 0.0000
-1.8062 <s> OFF 0.0000
-1.8062 <s> ON 0.0000
-1.8062 <s> ORDER 0.0000
-1.8062 <s> PM 0.0000
-1.8062 <s> REQUEST 0.0000
-1.8062 <s> RESERVE 0.0000
-1.8062 <s> RESTAURANT 0.0000
-1.8062 <s> ROOM 0.0000
-1.8062 <s> TABLE 0.0000
-1.8062 <s> THE 0.0000
-1.8062 <s> TOWELS 0.0000
-1.8062 <s> TURN 0.0000
-0.3010 A </s> -0.3010
-0.3010 AM </s> -0.3010
-0.3010 AT </s> -0.3010
-0.3010 BREAKFAST </s> -0.3010
-0.3010 CALL </s> -0.3010
-0.3010 CHECKOUT </s> -0.3010
-0.3010 CONCIERGE </s> -0.3010
-0.3010 CONTINENTAL BREAKFAST 0.0000
-0.3010 DESK </s> -0.3010
-0.3010 DIM </s> -0.3010
-0.3010 FRONT DESK 0.0000
-0.3010 LIGHTS </s> -0.3010
-0.3010 MARRIOTT </s> -0.3010
-0.3010 OFF </s> -0.3010
-0.3010 ON </s> -0.3010
-0.3010 ORDER </s> -0.3010
-0.3010 PM </s> -0.3010
-0.3010 REQUEST </s> -0.3010
-0.3010 RESERVE </s> -0.3010
-0.3010 RESTAURANT </s> -0.3010
-0.3010 ROOM SERVICE 0.0000
-0.3010 SERVICE </s> -0.3010
-0.3010 TABLE </s> -0.3010
-0.3010 THE </s> -0.3010
-0.3010 TOWELS </s> -0.3010
-0.3010 TURN </s> -0.3010

\3-grams:
-0.3010 <s> 1 </s>
-0.3010 <s> 2 </s>
-0.3010 <s> 3 </s>
-0.3010 <s> 4 </s>
-0.3010 <s> 5 </s>
-0.3010 <s> 6 </s>
-0.3010 <s> 7 </s>
-0.3010 <s> 8 </s>
-0.3010 <s> 9 </s>
-0.3010 <s> A </s>
-0.3010 <s> AM </s>
-0.3010 <s> AT </s>
-0.3010 <s> CALL </s>
-0.3010 <s> CHECKOUT </s>
-0.3010 <s> CONCIERGE </s>
-0.3010 <s> CONTINENTAL BREAKFAST
-0.3010 <s> DIM </s>
-0.3010 <s> FRONT DESK
-0.3010 <s> LIGHTS </s>
-0.3010 <s> MARRIOTT </s>
-0.3010 <s> OFF </s>
-0.3010 <s> ON </s>
-0.3010 <s> ORDER </s>
-0.3010 <s> PM </s>
-0.3010 <s> REQUEST </s>
-0.3010 <s> RESERVE </s>
-0.3010 <s> RESTAURANT </s>
-0.3010 <s> ROOM SERVICE
-0.3010 <s> TABLE </s>
-0.3010 <s> THE </s>
-0.3010 <s> TOWELS </s>
-0.3010 <s> TURN </s>
-0.3010 CONTINENTAL BREAKFAST </s>
-0.3010 FRONT DESK </s>
-0.3010 ROOM SERVICE </s>

\end\
