Language model created by QuickLM on Mon Jun 19 11:43:29 EDT 2017
Copyright (c) 1996-2010 Carnegie Mellon University and Alexander I. Rudnicky

The model is in standard ARPA format, designed by Doug Paul while he was at MITRE.

The code that was used to produce this language model is available in Open Source.
Please visit http://www.speech.cs.cmu.edu/tools/ for more information

The (fixed) discount mass is 0.5. The backoffs are computed using the ratio method.
This model based on a corpus of 3 sentences and 7 words

\data\
ngram 1=7
ngram 2=8
ngram 3=7

\1-grams:
-1.0000 </s> -0.3010
-1.0000 <s> -0.2553
-1.4771 BLUE -0.2553
-1.4771 CLEAR -0.2553
-1.0000 MARRIOTT -0.2553
-1.4771 RED -0.2553
-1.0000 RING -0.2553

\2-grams:
-0.3010 <s> MARRIOTT 0.0000
-0.3010 BLUE </s> -0.3010
-0.3010 CLEAR </s> -0.3010
-0.3010 MARRIOTT RING 0.0000
-0.3010 RED </s> -0.3010
-0.7782 RING BLUE 0.0000
-0.7782 RING CLEAR 0.0000
-0.7782 RING RED 0.0000

\3-grams:
-0.3010 <s> MARRIOTT RING
-0.7782 MARRIOTT RING BLUE
-0.7782 MARRIOTT RING CLEAR
-0.7782 MARRIOTT RING RED
-0.3010 RING BLUE </s>
-0.3010 RING CLEAR </s>
-0.3010 RING RED </s>

\end\
