Language model created by QuickLM on Mon Jun 19 19:43:21 EDT 2017
Copyright (c) 1996-2010 Carnegie Mellon University and Alexander I. Rudnicky

The model is in standard ARPA format, designed by Doug Paul while he was at MITRE.

The code that was used to produce this language model is available in Open Source.
Please visit http://www.speech.cs.cmu.edu/tools/ for more information

The (fixed) discount mass is 0.5. The backoffs are computed using the ratio method.
This model based on a corpus of 28 sentences and 30 words

\data\
ngram 1=30
ngram 2=55
ngram 3=28

\1-grams:
-0.7833 </s> -0.3010
-0.7833 <s> -0.2229
-2.2304 A -0.2229
-2.2304 BED -0.2229
-2.2304 BREAKFAST -0.2229
-2.2304 CALL -0.2229
-2.2304 CHECKOUT -0.2229
-2.2304 CONCIERGE -0.2229
-2.2304 CONTINENTAL -0.2229
-2.2304 DESK -0.2229
-2.2304 DIM -0.2229
-2.2304 DINNER -0.2229
-2.2304 FRONT -0.2985
-2.2304 I -0.2229
-2.2304 LIGHTS -0.2229
-2.2304 LUNCH -0.2229
-2.2304 MARRIOTT -0.2229
-2.2304 OFF -0.2229
-2.2304 ON -0.2229
-2.2304 ORDER -0.2229
-2.2304 PILLOWS -0.2229
-2.2304 REQUEST -0.2229
-1.9294 ROOM -0.2229
-2.2304 SHEETS -0.2229
-2.2304 THE -0.2229
-2.2304 TO -0.2229
-2.2304 TOWELS -0.2229
-2.2304 TURN -0.2229
-2.2304 VISA -0.2229
-2.2304 WANT -0.2229

\2-grams:
-1.7482 <s> A 0.0000
-1.7482 <s> BED 0.0000
-1.7482 <s> BREAKFAST 0.0000
-1.7482 <s> CALL 0.0000
-1.7482 <s> CHECKOUT 0.0000
-1.7482 <s> CONCIERGE 0.0000
-1.7482 <s> CONTINENTAL 0.0000
-1.7482 <s> DIM 0.0000
-1.7482 <s> DINNER 0.0000
-1.7482 <s> FRONT 0.0000
-1.7482 <s> I 0.0000
-1.7482 <s> LIGHTS 0.0000
-1.7482 <s> LUNCH 0.0000
-1.7482 <s> MARRIOTT 0.0000
-1.7482 <s> OFF 0.0000
-1.7482 <s> ON 0.0000
-1.7482 <s> ORDER 0.0000
-1.7482 <s> PILLOWS 0.0000
-1.7482 <s> REQUEST 0.0000
-1.4472 <s> ROOM 0.0000
-1.7482 <s> SHEETS 0.0000
-1.7482 <s> THE 0.0000
-1.7482 <s> TO 0.0000
-1.7482 <s> TOWELS 0.0000
-1.7482 <s> TURN 0.0000
-1.7482 <s> VISA 0.0000
-1.7482 <s> WANT 0.0000
-0.3010 A </s> -0.3010
-0.3010 BED </s> -0.3010
-0.3010 BREAKFAST </s> -0.3010
-0.3010 CALL </s> -0.3010
-0.3010 CHECKOUT </s> -0.3010
-0.3010 CONCIERGE </s> -0.3010
-0.3010 CONTINENTAL </s> -0.3010
-0.3010 DESK </s> -0.3010
-0.3010 DIM </s> -0.3010
-0.3010 DINNER </s> -0.3010
-0.3010 FRONT DESK 0.0000
-0.3010 I </s> -0.3010
-0.3010 LIGHTS </s> -0.3010
-0.3010 LUNCH </s> -0.3010
-0.3010 MARRIOTT </s> -0.3010
-0.3010 OFF </s> -0.3010
-0.3010 ON </s> -0.3010
-0.3010 ORDER </s> -0.3010
-0.3010 PILLOWS </s> -0.3010
-0.3010 REQUEST </s> -0.3010
-0.3010 ROOM </s> -0.3010
-0.3010 SHEETS </s> -0.3010
-0.3010 THE </s> -0.3010
-0.3010 TO </s> -0.3010
-0.3010 TOWELS </s> -0.3010
-0.3010 TURN </s> -0.3010
-0.3010 VISA </s> -0.3010
-0.3010 WANT </s> -0.3010

\3-grams:
-0.3010 <s> A </s>
-0.3010 <s> BED </s>
-0.3010 <s> BREAKFAST </s>
-0.3010 <s> CALL </s>
-0.3010 <s> CHECKOUT </s>
-0.3010 <s> CONCIERGE </s>
-0.3010 <s> CONTINENTAL </s>
-0.3010 <s> DIM </s>
-0.3010 <s> DINNER </s>
-0.3010 <s> FRONT DESK
-0.3010 <s> I </s>
-0.3010 <s> LIGHTS </s>
-0.3010 <s> LUNCH </s>
-0.3010 <s> MARRIOTT </s>
-0.3010 <s> OFF </s>
-0.3010 <s> ON </s>
-0.3010 <s> ORDER </s>
-0.3010 <s> PILLOWS </s>
-0.3010 <s> REQUEST </s>
-0.3010 <s> ROOM </s>
-0.3010 <s> SHEETS </s>
-0.3010 <s> THE </s>
-0.3010 <s> TO </s>
-0.3010 <s> TOWELS </s>
-0.3010 <s> TURN </s>
-0.3010 <s> VISA </s>
-0.3010 <s> WANT </s>
-0.3010 FRONT DESK </s>

\end\
