Language model created by QuickLM on Mon Jun 19 14:38:39 EDT 2017
Copyright (c) 1996-2010 Carnegie Mellon University and Alexander I. Rudnicky

The model is in standard ARPA format, designed by Doug Paul while he was at MITRE.

The code that was used to produce this language model is available in Open Source.
Please visit http://www.speech.cs.cmu.edu/tools/ for more information

The (fixed) discount mass is 0.5. The backoffs are computed using the ratio method.
This model based on a corpus of 17 sentences and 28 words

\data\
ngram 1=28
ngram 2=45
ngram 3=28

\1-grams:
-2.0934 5 -0.2975
-0.8630 </s> -0.3010
-0.8630 <s> -0.2329
-2.0934 A -0.2975
-1.7924 AT -0.2904
-2.0934 BREAKFAST -0.2370
-2.0934 CALL -0.2370
-2.0934 CHECKOUT -0.2370
-2.0934 CONCIERGE -0.2370
-2.0934 CONTINENTAL -0.2975
-2.0934 DESK -0.2370
-2.0934 DIM -0.2370
-2.0934 FRONT -0.2975
-2.0934 LIGHTS -0.2370
-2.0934 MARRIOTT -0.2370
-2.0934 OFF -0.2370
-2.0934 ON -0.2370
-2.0934 ORDER -0.2370
-2.0934 PM -0.2940
-2.0934 REQUEST -0.2370
-2.0934 RESERVE -0.2975
-2.0934 RESTAURANT -0.2370
-2.0934 ROOM -0.2975
-2.0934 SERVICE -0.2370
-2.0934 TABLE -0.2940
-1.7924 THE -0.2329
-2.0934 TOWELS -0.2370
-2.0934 TURN -0.2370

\2-grams:
-0.3010 5 PM 0.0000
-1.5315 <s> CALL 0.0000
-1.5315 <s> CHECKOUT 0.0000
-1.5315 <s> CONCIERGE 0.0000
-1.5315 <s> CONTINENTAL 0.0000
-1.5315 <s> DIM 0.0000
-1.5315 <s> FRONT 0.0000
-1.5315 <s> LIGHTS 0.0000
-1.5315 <s> MARRIOTT 0.0000
-1.5315 <s> OFF 0.0000
-1.5315 <s> ON 0.0000
-1.5315 <s> ORDER 0.0000
-1.5315 <s> REQUEST 0.0000
-1.5315 <s> RESERVE 0.0000
-1.5315 <s> ROOM 0.0000
-1.5315 <s> THE -0.1761
-1.5315 <s> TOWELS 0.0000
-1.5315 <s> TURN 0.0000
-0.3010 A TABLE 0.0000
-0.6021 AT 5 0.0000
-0.6021 AT THE -0.1761
-0.3010 BREAKFAST </s> -0.3010
-0.3010 CALL </s> -0.3010
-0.3010 CHECKOUT </s> -0.3010
-0.3010 CONCIERGE </s> -0.3010
-0.3010 CONTINENTAL BREAKFAST 0.0000
-0.3010 DESK </s> -0.3010
-0.3010 DIM </s> -0.3010
-0.3010 FRONT DESK 0.0000
-0.3010 LIGHTS </s> -0.3010
-0.3010 MARRIOTT </s> -0.3010
-0.3010 OFF </s> -0.3010
-0.3010 ON </s> -0.3010
-0.3010 ORDER </s> -0.3010
-0.3010 PM AT -0.1761
-0.3010 REQUEST </s> -0.3010
-0.3010 RESERVE A 0.0000
-0.3010 RESTAURANT </s> -0.3010
-0.3010 ROOM SERVICE 0.0000
-0.3010 SERVICE </s> -0.3010
-0.3010 TABLE AT -0.1761
-0.6021 THE </s> -0.3010
-0.6021 THE RESTAURANT 0.0000
-0.3010 TOWELS </s> -0.3010
-0.3010 TURN </s> -0.3010

\3-grams:
-0.3010 5 PM AT
-0.3010 <s> CALL </s>
-0.3010 <s> CHECKOUT </s>
-0.3010 <s> CONCIERGE </s>
-0.3010 <s> CONTINENTAL BREAKFAST
-0.3010 <s> DIM </s>
-0.3010 <s> FRONT DESK
-0.3010 <s> LIGHTS </s>
-0.3010 <s> MARRIOTT </s>
-0.3010 <s> OFF </s>
-0.3010 <s> ON </s>
-0.3010 <s> ORDER </s>
-0.3010 <s> REQUEST </s>
-0.3010 <s> RESERVE A
-0.3010 <s> ROOM SERVICE
-0.3010 <s> THE </s>
-0.3010 <s> TOWELS </s>
-0.3010 <s> TURN </s>
-0.3010 A TABLE AT
-0.3010 AT 5 PM
-0.3010 AT THE RESTAURANT
-0.3010 CONTINENTAL BREAKFAST </s>
-0.3010 FRONT DESK </s>
-0.3010 PM AT THE
-0.3010 RESERVE A TABLE
-0.3010 ROOM SERVICE </s>
-0.3010 TABLE AT 5
-0.3010 THE RESTAURANT </s>

\end\
