Language model created by QuickLM on Mon Jun 19 17:19:25 EDT 2017
Copyright (c) 1996-2010 Carnegie Mellon University and Alexander I. Rudnicky

The model is in standard ARPA format, designed by Doug Paul while he was at MITRE.

The code that was used to produce this language model is available in Open Source.
Please visit http://www.speech.cs.cmu.edu/tools/ for more information

The (fixed) discount mass is 0.5. The backoffs are computed using the ratio method.
This model based on a corpus of 41 sentences and 44 words

\data\
ngram 1=44
ngram 2=83
ngram 3=44

\1-grams:
-2.4014 1 -0.2239
-2.4014 2 -0.2239
-2.4014 3 -0.2239
-2.4014 4 -0.2239
-2.4014 5 -0.2239
-2.4014 6 -0.2239
-2.4014 7 -0.2239
-2.4014 8 -0.2239
-2.4014 9 -0.2239
-0.7886 </s> -0.3010
-0.7886 <s> -0.2218
-2.4014 A -0.2239
-2.4014 AM -0.2239
-2.4014 AT -0.2239
-2.4014 BREAKFAST -0.2239
-2.4014 CALL -0.2239
-2.1004 CHECKOUT -0.2239
-2.4014 CONCIERGE -0.2239
-2.4014 CONTINENTAL -0.2239
-2.4014 DESK -0.2239
-2.4014 DIM -0.2239
-2.4014 DINNER -0.2239
-2.4014 FRONT -0.2993
-2.4014 LIGHTS -0.2239
-2.4014 LUNCH -0.2239
-2.4014 MARRIOTT -0.2239
-2.4014 ME -0.2239
-2.4014 OFF -0.2239
-2.4014 ON -0.2239
-2.4014 ORDER -0.2239
-2.4014 PM -0.2239
-2.4014 REQUEST -0.2239
-2.4014 RESERVE -0.2239
-2.4014 RESTAURANT -0.2239
-2.1004 ROOM -0.2218
-2.4014 SERVICE -0.2239
-2.4014 TABLE -0.2239
-2.4014 THE -0.2239
-2.4014 TO -0.2239
-2.4014 TOWELS -0.2239
-2.4014 TURN -0.2239
-2.4014 UP -0.2239
-2.4014 VISA -0.2976
-2.4014 WAKE -0.2239

\2-grams:
-0.3010 1 </s> -0.3010
-0.3010 2 </s> -0.3010
-0.3010 3 </s> -0.3010
-0.3010 4 </s> -0.3010
-0.3010 5 </s> -0.3010
-0.3010 6 </s> -0.3010
-0.3010 7 </s> -0.3010
-0.3010 8 </s> -0.3010
-0.3010 9 </s> -0.3010
-1.9138 <s> 1 0.0000
-1.9138 <s> 2 0.0000
-1.9138 <s> 3 0.0000
-1.9138 <s> 4 0.0000
-1.9138 <s> 5 0.0000
-1.9138 <s> 6 0.0000
-1.9138 <s> 7 0.0000
-1.9138 <s> 8 0.0000
-1.9138 <s> 9 0.0000
-1.9138 <s> A 0.0000
-1.9138 <s> AM 0.0000
-1.9138 <s> AT 0.0000
-1.9138 <s> BREAKFAST 0.0000
-1.9138 <s> CALL 0.0000
-1.9138 <s> CHECKOUT 0.0000
-1.9138 <s> CONCIERGE 0.0000
-1.9138 <s> CONTINENTAL 0.0000
-1.9138 <s> DIM 0.0000
-1.9138 <s> DINNER 0.0000
-1.9138 <s> FRONT 0.0000
-1.9138 <s> LIGHTS 0.0000
-1.9138 <s> LUNCH 0.0000
-1.9138 <s> MARRIOTT 0.0000
-1.9138 <s> ME 0.0000
-1.9138 <s> OFF 0.0000
-1.9138 <s> ON 0.0000
-1.9138 <s> ORDER 0.0000
-1.9138 <s> PM 0.0000
-1.9138 <s> REQUEST 0.0000
-1.9138 <s> RESERVE 0.0000
-1.9138 <s> RESTAURANT 0.0000
-1.6128 <s> ROOM 0.0000
-1.9138 <s> TABLE 0.0000
-1.9138 <s> THE 0.0000
-1.9138 <s> TO 0.0000
-1.9138 <s> TOWELS 0.0000
-1.9138 <s> TURN 0.0000
-1.9138 <s> UP 0.0000
-1.9138 <s> VISA 0.0000
-1.9138 <s> WAKE 0.0000
-0.3010 A </s> -0.3010
-0.3010 AM </s> -0.3010
-0.3010 AT </s> -0.3010
-0.3010 BREAKFAST </s> -0.3010
-0.3010 CALL </s> -0.3010
-0.3010 CHECKOUT </s> -0.3010
-0.3010 CONCIERGE </s> -0.3010
-0.3010 CONTINENTAL </s> -0.3010
-0.3010 DESK </s> -0.3010
-0.3010 DIM </s> -0.3010
-0.3010 DINNER </s> -0.3010
-0.3010 FRONT DESK 0.0000
-0.3010 LIGHTS </s> -0.3010
-0.3010 LUNCH </s> -0.3010
-0.3010 MARRIOTT </s> -0.3010
-0.3010 ME </s> -0.3010
-0.3010 OFF </s> -0.3010
-0.3010 ON </s> -0.3010
-0.3010 ORDER </s> -0.3010
-0.3010 PM </s> -0.3010
-0.3010 REQUEST </s> -0.3010
-0.3010 RESERVE </s> -0.3010
-0.3010 RESTAURANT </s> -0.3010
-0.6021 ROOM </s> -0.3010
-0.6021 ROOM SERVICE 0.0000
-0.3010 SERVICE </s> -0.3010
-0.3010 TABLE </s> -0.3010
-0.3010 THE </s> -0.3010
-0.3010 TO </s> -0.3010
-0.3010 TOWELS </s> -0.3010
-0.3010 TURN </s> -0.3010
-0.3010 UP </s> -0.3010
-0.3010 VISA CHECKOUT 0.0000
-0.3010 WAKE </s> -0.3010

\3-grams:
-0.3010 <s> 1 </s>
-0.3010 <s> 2 </s>
-0.3010 <s> 3 </s>
-0.3010 <s> 4 </s>
-0.3010 <s> 5 </s>
-0.3010 <s> 6 </s>
-0.3010 <s> 7 </s>
-0.3010 <s> 8 </s>
-0.3010 <s> 9 </s>
-0.3010 <s> A </s>
-0.3010 <s> AM </s>
-0.3010 <s> AT </s>
-0.3010 <s> BREAKFAST </s>
-0.3010 <s> CALL </s>
-0.3010 <s> CHECKOUT </s>
-0.3010 <s> CONCIERGE </s>
-0.3010 <s> CONTINENTAL </s>
-0.3010 <s> DIM </s>
-0.3010 <s> DINNER </s>
-0.3010 <s> FRONT DESK
-0.3010 <s> LIGHTS </s>
-0.3010 <s> LUNCH </s>
-0.3010 <s> MARRIOTT </s>
-0.3010 <s> ME </s>
-0.3010 <s> OFF </s>
-0.3010 <s> ON </s>
-0.3010 <s> ORDER </s>
-0.3010 <s> PM </s>
-0.3010 <s> REQUEST </s>
-0.3010 <s> RESERVE </s>
-0.3010 <s> RESTAURANT </s>
-0.6021 <s> ROOM </s>
-0.6021 <s> ROOM SERVICE
-0.3010 <s> TABLE </s>
-0.3010 <s> THE </s>
-0.3010 <s> TO </s>
-0.3010 <s> TOWELS </s>
-0.3010 <s> TURN </s>
-0.3010 <s> UP </s>
-0.3010 <s> VISA CHECKOUT
-0.3010 <s> WAKE </s>
-0.3010 FRONT DESK </s>
-0.3010 ROOM SERVICE </s>
-0.3010 VISA CHECKOUT </s>

\end\
